-0.408036271569835,0.940721019906161,-0.353036537962795,-0.297072363745282,-0.290248523070669,0.142633095579983,-0.815965134928973,0.130279551347841,-0.385372866788755,-0.51948407681043,0.808327451666048,0.462235768237959,0.443097445573707,-0.854928714386723,-0.183474642388127,0.00156227398448345,0.634325229215237,0.66467235719373,-0.641100176371579,-0.210311364009472,-0.219704102351757,0.196774456504311,0.838841767395498,-0.204861212894825,-0.056966129324504,-0.929798956781173,-0.0473117789323566,0.665062498893829,0.341335631783955,0.0505058726365802,-0.496771955323381,0.71859008665795,-0.471290999691538,0.765683711851263,0.517356453936646,-0.910005873401114,0.706605075651966,0.291392596170414,-0.870437322452557,-0.69822627395508,-0.21229475262549,-0.933602632686603,0.442334985970702,-0.761101574808487,0.171962289899459,0.921461410075541,-0.459163888489796,-0.120012073606124,-0.0190239757180525,0.853741152002074,-0.0680266788466204,-0.0985543680405507,-0.0559713472843678,0.67586781291797,0.155962517858964,-0.662401913452216,-0.783258675384589,-0.289042696573257,-0.962796468881034,-0.536115170669488,1.37935701087821,1.24245190621764,1.09545090672688,0.65129047741458,-0.174540438306729,1.55427792578265,1.1940926718025,-0.0935353771329519,0.654165936237257,-0.329828503814882,-0.874766318607771,0.426054930624533,0.737251233347825,-0.306552007140747,0.399448781006117,0.270468059513073,1.37632711183332,0.430593245446723,-0.123152209930155,0.434306303596097,0.0594248303340618,0.426177413406466,
